digraph Tree {
node [shape=box] ;
0 [label="X[1] <= -0.584\ngini = 0.667\nsamples = 105\nvalue = [35, 35, 35]"] ;
1 [label="gini = 0.0\nsamples = 35\nvalue = [35, 0, 0]"] ;
0 -> 1 [labeldistance=2.5, labelangle=45, headlabel="True"] ;
2 [label="X[0] <= 0.536\ngini = 0.5\nsamples = 70\nvalue = [0, 35, 35]"] ;
0 -> 2 [labeldistance=2.5, labelangle=-45, headlabel="False"] ;
3 [label="gini = 0.0\nsamples = 30\nvalue = [0, 30, 0]"] ;
2 -> 3 ;
4 [label="X[1] <= 0.725\ngini = 0.219\nsamples = 40\nvalue = [0, 5, 35]"] ;
2 -> 4 ;
5 [label="X[0] <= 0.647\ngini = 0.5\nsamples = 8\nvalue = [0, 4, 4]"] ;
4 -> 5 ;
6 [label="gini = 0.0\nsamples = 2\nvalue = [0, 2, 0]"] ;
5 -> 6 ;
7 [label="X[1] <= 0.463\ngini = 0.444\nsamples = 6\nvalue = [0, 2, 4]"] ;
5 -> 7 ;
8 [label="gini = 0.0\nsamples = 3\nvalue = [0, 0, 3]"] ;
7 -> 8 ;
9 [label="X[0] <= 0.926\ngini = 0.444\nsamples = 3\nvalue = [0, 2, 1]"] ;
7 -> 9 ;
10 [label="gini = 0.0\nsamples = 2\nvalue = [0, 2, 0]"] ;
9 -> 10 ;
11 [label="gini = 0.0\nsamples = 1\nvalue = [0, 0, 1]"] ;
9 -> 11 ;
12 [label="X[0] <= 0.591\ngini = 0.061\nsamples = 32\nvalue = [0, 1, 31]"] ;
4 -> 12 ;
13 [label="gini = 0.444\nsamples = 3\nvalue = [0, 1, 2]"] ;
12 -> 13 ;
14 [label="gini = 0.0\nsamples = 29\nvalue = [0, 0, 29]"] ;
12 -> 14 ;
}